digraph Tree {
node [shape=box] ;
0 [label="average_thickness <= 278.1\ngini = 0.495\nsamples = 107\nvalue = [48, 59]\nclass = Yes_Failure"] ;
1 [label="Gap <= 850.0\ngini = 0.211\nsamples = 50\nvalue = [44, 6]\nclass = No_Failure"] ;
0 -> 1 [labeldistance=2.5, labelangle=45, headlabel="True"] ;
2 [label="average_thickness <= 243.8\ngini = 0.153\nsamples = 48\nvalue = [44, 4]\nclass = No_Failure"] ;
1 -> 2 ;
3 [label="gini = 0.0\nsamples = 36\nvalue = [36, 0]\nclass = No_Failure"] ;
2 -> 3 ;
4 [label="standard_deviation <= 11.85\ngini = 0.444\nsamples = 12\nvalue = [8, 4]\nclass = No_Failure"] ;
2 -> 4 ;
5 [label="average_thickness <= 254.5\ngini = 0.397\nsamples = 11\nvalue = [8, 3]\nclass = No_Failure"] ;
4 -> 5 ;
6 [label="gini = 0.444\nsamples = 3\nvalue = [1, 2]\nclass = Yes_Failure"] ;
5 -> 6 ;
7 [label="gini = 0.219\nsamples = 8\nvalue = [7, 1]\nclass = No_Failure"] ;
5 -> 7 ;
8 [label="gini = 0.0\nsamples = 1\nvalue = [0, 1]\nclass = Yes_Failure"] ;
4 -> 8 ;
9 [label="gini = 0.0\nsamples = 2\nvalue = [0, 2]\nclass = Yes_Failure"] ;
1 -> 9 ;
10 [label="standard_deviation <= 2.25\ngini = 0.131\nsamples = 57\nvalue = [4, 53]\nclass = Yes_Failure"] ;
0 -> 10 [labeldistance=2.5, labelangle=-45, headlabel="False"] ;
11 [label="lab_humidity <= 35.0\ngini = 0.245\nsamples = 28\nvalue = [4, 24]\nclass = Yes_Failure"] ;
10 -> 11 ;
12 [label="gini = 0.0\nsamples = 12\nvalue = [0, 12]\nclass = Yes_Failure"] ;
11 -> 12 ;
13 [label="average_thickness <= 303.0\ngini = 0.375\nsamples = 16\nvalue = [4, 12]\nclass = Yes_Failure"] ;
11 -> 13 ;
14 [label="gini = 0.0\nsamples = 6\nvalue = [0, 6]\nclass = Yes_Failure"] ;
13 -> 14 ;
15 [label="Gap <= 800.0\ngini = 0.48\nsamples = 10\nvalue = [4, 6]\nclass = Yes_Failure"] ;
13 -> 15 ;
16 [label="gini = 0.375\nsamples = 4\nvalue = [3, 1]\nclass = No_Failure"] ;
15 -> 16 ;
17 [label="gini = 0.278\nsamples = 6\nvalue = [1, 5]\nclass = Yes_Failure"] ;
15 -> 17 ;
18 [label="gini = 0.0\nsamples = 29\nvalue = [0, 29]\nclass = Yes_Failure"] ;
10 -> 18 ;
}